<?xml version="1.0"?>
<opencv_storage>
<stage7>
  <maxWeakCount>8</maxWeakCount>
  <stageThreshold>-1.3593651056289673e+00</stageThreshold>
  <weakClassifiers>
    <_>
      <internalNodes>
        0 -1 10124 -4.0960378944873810e-02</internalNodes>
      <leafValues>
        -1.0344827920198441e-01 -7.2365337610244751e-01</leafValues></_>
    <_>
      <internalNodes>
        0 -1 128122 -2.4292620946653187e-04</internalNodes>
      <leafValues>
        -5.8473217487335205e-01 8.8177345693111420e-02</leafValues></_>
    <_>
      <internalNodes>
        0 -1 2129 -4.1896943002939224e-04</internalNodes>
      <leafValues>
        -7.2220879793167114e-01 1.3354809582233429e-01</leafValues></_>
    <_>
      <internalNodes>
        0 -1 65958 -8.2639288157224655e-03</internalNodes>
      <leafValues>
        -7.2299653291702271e-01 1.4004151523113251e-01</leafValues></_>
    <_>
      <internalNodes>
        0 -1 118727 -1.8448184709995985e-03</internalNodes>
      <leafValues>
        4.5886087417602539e-01 -2.2351394593715668e-01</leafValues></_>
    <_>
      <internalNodes>
        0 -1 162235 -1.8652039580047131e-03</internalNodes>
      <leafValues>
        -7.3307126760482788e-01 1.4004610478878021e-01</leafValues></_>
    <_>
      <internalNodes>
        0 -1 162044 -3.8966510328464210e-04</internalNodes>
      <leafValues>
        -5.8644413948059082e-01 1.6218008100986481e-01</leafValues></_>
    <_>
      <internalNodes>
        0 -1 159475 7.4506863020360470e-03</internalNodes>
      <leafValues>
        -2.1315291523933411e-01 5.5252766609191895e-01</leafValues></_></weakClassifiers></stage7>
</opencv_storage>
