<?xml version="1.0"?>
<opencv_storage>
<stage10>
  <maxWeakCount>9</maxWeakCount>
  <stageThreshold>-1.4257180690765381e+00</stageThreshold>
  <weakClassifiers>
    <_>
      <internalNodes>
        0 -1 151258 1.7487595323473215e-03</internalNodes>
      <leafValues>
        -6.9593149423599243e-01 5.5555558204650879e-01</leafValues></_>
    <_>
      <internalNodes>
        0 -1 97608 8.5040237754583359e-03</internalNodes>
      <leafValues>
        -3.0185115337371826e-01 4.7498485445976257e-01</leafValues></_>
    <_>
      <internalNodes>
        0 -1 147839 2.0544142462313175e-03</internalNodes>
      <leafValues>
        -2.2095911204814911e-01 4.7312530875205994e-01</leafValues></_>
    <_>
      <internalNodes>
        0 -1 82493 -5.2257892675697803e-03</internalNodes>
      <leafValues>
        -8.7944370508193970e-01 1.4521235227584839e-01</leafValues></_>
    <_>
      <internalNodes>
        0 -1 45545 -5.3426559315994382e-04</internalNodes>
      <leafValues>
        5.0546294450759888e-01 -2.0542868971824646e-01</leafValues></_>
    <_>
      <internalNodes>
        0 -1 79358 1.6783531755208969e-03</internalNodes>
      <leafValues>
        1.5379205346107483e-01 -7.5524312257766724e-01</leafValues></_>
    <_>
      <internalNodes>
        0 -1 127381 -1.6975913196802139e-02</internalNodes>
      <leafValues>
        4.6502387523651123e-01 -2.5027909874916077e-01</leafValues></_>
    <_>
      <internalNodes>
        0 -1 66611 3.9390269666910172e-02</internalNodes>
      <leafValues>
        1.6767361760139465e-01 -6.4421999454498291e-01</leafValues></_>
    <_>
      <internalNodes>
        0 -1 87922 2.9201470315456390e-03</internalNodes>
      <leafValues>
        -2.1794658899307251e-01 6.3503837585449219e-01</leafValues></_></weakClassifiers></stage10>
</opencv_storage>
