<?xml version="1.0"?>
<opencv_storage>
<stage18>
  <maxWeakCount>8</maxWeakCount>
  <stageThreshold>-1.0743470191955566e+00</stageThreshold>
  <weakClassifiers>
    <_>
      <internalNodes>
        0 -1 30342 -8.0423746258020401e-03</internalNodes>
      <leafValues>
        7.5000000000000000e-01 -6.7295598983764648e-01</leafValues></_>
    <_>
      <internalNodes>
        0 -1 157598 -9.8072538094129413e-05</internalNodes>
      <leafValues>
        -6.1492234468460083e-01 1.3239272870123386e-02</leafValues></_>
    <_>
      <internalNodes>
        0 -1 4611 -2.6035830378532410e-03</internalNodes>
      <leafValues>
        3.7032774090766907e-01 -2.3459772765636444e-01</leafValues></_>
    <_>
      <internalNodes>
        0 -1 160971 6.3127663452178240e-05</internalNodes>
      <leafValues>
        2.2148001194000244e-01 -3.2864639163017273e-01</leafValues></_>
    <_>
      <internalNodes>
        0 -1 77881 -6.9113657809793949e-04</internalNodes>
      <leafValues>
        3.1689110398292542e-01 -2.3155683279037476e-01</leafValues></_>
    <_>
      <internalNodes>
        0 -1 93800 1.4073580503463745e-02</internalNodes>
      <leafValues>
        9.6401073038578033e-02 -8.1043976545333862e-01</leafValues></_>
    <_>
      <internalNodes>
        0 -1 97677 2.4656960740685463e-03</internalNodes>
      <leafValues>
        -1.8237178027629852e-01 4.7976171970367432e-01</leafValues></_>
    <_>
      <internalNodes>
        0 -1 78246 -3.9583542384207249e-03</internalNodes>
      <leafValues>
        -7.2120386362075806e-01 1.0706167668104172e-01</leafValues></_></weakClassifiers></stage18>
</opencv_storage>
