<?xml version="1.0"?>
<opencv_storage>
<stage12>
  <maxWeakCount>9</maxWeakCount>
  <stageThreshold>-1.1955735683441162e+00</stageThreshold>
  <weakClassifiers>
    <_>
      <internalNodes>
        0 -1 96429 3.9795739576220512e-03</internalNodes>
      <leafValues>
        -7.0155900716781616e-01 8.1797032039171924e-17</leafValues></_>
    <_>
      <internalNodes>
        0 -1 6025 -6.6857691854238510e-03</internalNodes>
      <leafValues>
        -6.1205959320068359e-01 4.9379240721464157e-02</leafValues></_>
    <_>
      <internalNodes>
        0 -1 42191 -1.3856194913387299e-01</internalNodes>
      <leafValues>
        -8.0740737915039063e-01 1.0946905612945557e-01</leafValues></_>
    <_>
      <internalNodes>
        0 -1 7369 -2.5384391192346811e-03</internalNodes>
      <leafValues>
        3.5651004314422607e-01 -2.6976555585861206e-01</leafValues></_>
    <_>
      <internalNodes>
        0 -1 143103 9.7503438591957092e-03</internalNodes>
      <leafValues>
        1.7359036207199097e-01 -6.2807524204254150e-01</leafValues></_>
    <_>
      <internalNodes>
        0 -1 25788 -8.1226877227891237e-05</internalNodes>
      <leafValues>
        -4.8875012993812561e-01 2.1680997312068939e-01</leafValues></_>
    <_>
      <internalNodes>
        0 -1 156100 4.9719046801328659e-03</internalNodes>
      <leafValues>
        1.1788339912891388e-01 -8.1702327728271484e-01</leafValues></_>
    <_>
      <internalNodes>
        0 -1 151379 4.0294730570167303e-04</internalNodes>
      <leafValues>
        -2.1909800171852112e-01 4.5498254895210266e-01</leafValues></_>
    <_>
      <internalNodes>
        0 -1 1190 -1.1974122026003897e-04</internalNodes>
      <leafValues>
        -3.8168209791183472e-01 2.8633436560630798e-01</leafValues></_></weakClassifiers></stage12>
</opencv_storage>
