<?xml version="1.0"?>
<opencv_storage>
<stage3>
  <maxWeakCount>8</maxWeakCount>
  <stageThreshold>-1.7299572229385376e+00</stageThreshold>
  <weakClassifiers>
    <_>
      <internalNodes>
        0 -1 144938 -2.8846338391304016e-02</internalNodes>
      <leafValues>
        -1.3924050331115723e-01 -7.4876844882965088e-01</leafValues></_>
    <_>
      <internalNodes>
        0 -1 144036 -5.3251837380230427e-04</internalNodes>
      <leafValues>
        -8.7744867801666260e-01 1.0859561152756214e-02</leafValues></_>
    <_>
      <internalNodes>
        0 -1 4985 1.0180028039030731e-04</internalNodes>
      <leafValues>
        1.6043540835380554e-01 -6.5105712413787842e-01</leafValues></_>
    <_>
      <internalNodes>
        0 -1 15585 4.1399393230676651e-03</internalNodes>
      <leafValues>
        -1.7441026866436005e-01 7.4400866031646729e-01</leafValues></_>
    <_>
      <internalNodes>
        0 -1 13396 5.8001278375741094e-05</internalNodes>
      <leafValues>
        2.5964727997779846e-01 -5.2714967727661133e-01</leafValues></_>
    <_>
      <internalNodes>
        0 -1 75885 6.7438352853059769e-03</internalNodes>
      <leafValues>
        -2.0039719343185425e-01 6.3963609933853149e-01</leafValues></_>
    <_>
      <internalNodes>
        0 -1 114404 2.4269019195344299e-04</internalNodes>
      <leafValues>
        2.6335448026657104e-01 -5.6847524642944336e-01</leafValues></_>
    <_>
      <internalNodes>
        0 -1 8157 -1.1268801754340529e-03</internalNodes>
      <leafValues>
        -5.1388108730316162e-01 2.7348226308822632e-01</leafValues></_></weakClassifiers></stage3>
</opencv_storage>
