<?xml version="1.0"?>
<opencv_storage>
<stage0>
  <maxWeakCount>6</maxWeakCount>
  <stageThreshold>-1.0208148956298828e+00</stageThreshold>
  <weakClassifiers>
    <_>
      <internalNodes>
        0 -1 101845 2.8347462415695190e-02</internalNodes>
      <leafValues>
        -7.4883723258972168e-01 1.2727272510528564e-01</leafValues></_>
    <_>
      <internalNodes>
        0 -1 94329 1.1554402299225330e-03</internalNodes>
      <leafValues>
        -4.8134127259254456e-01 4.3334445357322693e-01</leafValues></_>
    <_>
      <internalNodes>
        0 -1 162189 3.2125957659445703e-05</internalNodes>
      <leafValues>
        2.3521223664283752e-01 -6.1433231830596924e-01</leafValues></_>
    <_>
      <internalNodes>
        0 -1 18859 -1.0938423220068216e-03</internalNodes>
      <leafValues>
        5.8239197731018066e-01 -2.9859656095504761e-01</leafValues></_>
    <_>
      <internalNodes>
        0 -1 13359 2.0863097161054611e-02</internalNodes>
      <leafValues>
        1.9846253097057343e-01 -8.5233402252197266e-01</leafValues></_>
    <_>
      <internalNodes>
        0 -1 23514 -7.3084712028503418e-02</internalNodes>
      <leafValues>
        -9.4956272840499878e-01 2.1039615571498871e-01</leafValues></_></weakClassifiers></stage0>
</opencv_storage>
