<?xml version="1.0"?>
<opencv_storage>
<stage1>
  <maxWeakCount>7</maxWeakCount>
  <stageThreshold>-1.0456053018569946e+00</stageThreshold>
  <weakClassifiers>
    <_>
      <internalNodes>
        0 -1 124775 -1.2208184227347374e-02</internalNodes>
      <leafValues>
        -3.2967034727334976e-02 -7.9187816381454468e-01</leafValues></_>
    <_>
      <internalNodes>
        0 -1 116631 1.9591953605413437e-02</internalNodes>
      <leafValues>
        -3.9348408579826355e-01 5.8616352081298828e-01</leafValues></_>
    <_>
      <internalNodes>
        0 -1 68693 8.2594174891710281e-03</internalNodes>
      <leafValues>
        -2.3395265638828278e-01 6.7365854978561401e-01</leafValues></_>
    <_>
      <internalNodes>
        0 -1 157550 7.2946473956108093e-03</internalNodes>
      <leafValues>
        -1.5745122730731964e-01 8.5315287113189697e-01</leafValues></_>
    <_>
      <internalNodes>
        0 -1 832 1.1759875714778900e-01</internalNodes>
      <leafValues>
        1.9044753909111023e-01 -9.6074676513671875e-01</leafValues></_>
    <_>
      <internalNodes>
        0 -1 144646 -2.1069519221782684e-02</internalNodes>
      <leafValues>
        7.0113945007324219e-01 -2.2083632647991180e-01</leafValues></_>
    <_>
      <internalNodes>
        0 -1 67344 2.2389598190784454e-02</internalNodes>
      <leafValues>
        -1.9736151397228241e-01 7.8341215848922729e-01</leafValues></_></weakClassifiers></stage1>
</opencv_storage>
