<?xml version="1.0"?>
<opencv_storage>
<cascade>
  <stageType>BOOST</stageType>
  <featureType>HAAR</featureType>
  <height>24</height>
  <width>24</width>
  <stageParams>
    <boostType>GAB</boostType>
    <minHitRate>9.9500000476837158e-01</minHitRate>
    <maxFalseAlarm>5.0000000000000000e-01</maxFalseAlarm>
    <weightTrimRate>9.4999999999999996e-01</weightTrimRate>
    <maxDepth>1</maxDepth>
    <maxWeakCount>100</maxWeakCount></stageParams>
  <featureParams>
    <maxCatCount>0</maxCatCount>
    <featSize>1</featSize>
    <mode>BASIC</mode></featureParams>
  <stageNum>20</stageNum>
  <stages>
    <!-- stage 0 -->
    <_>
      <maxWeakCount>6</maxWeakCount>
      <stageThreshold>-1.0208148956298828e+00</stageThreshold>
      <weakClassifiers>
        <_>
          <internalNodes>
            0 -1 101 2.8347462415695190e-02</internalNodes>
          <leafValues>
            -7.4883723258972168e-01 1.2727272510528564e-01</leafValues></_>
        <_>
          <internalNodes>
            0 -1 91 1.1554402299225330e-03</internalNodes>
          <leafValues>
            -4.8134127259254456e-01 4.3334445357322693e-01</leafValues></_>
        <_>
          <internalNodes>
            0 -1 160 3.2125957659445703e-05</internalNodes>
          <leafValues>
            2.3521223664283752e-01 -6.1433231830596924e-01</leafValues></_>
        <_>
          <internalNodes>
            0 -1 27 -1.0938423220068216e-03</internalNodes>
          <leafValues>
            5.8239197731018066e-01 -2.9859656095504761e-01</leafValues></_>
        <_>
          <internalNodes>
            0 -1 22 2.0863097161054611e-02</internalNodes>
          <leafValues>
            1.9846253097057343e-01 -8.5233402252197266e-01</leafValues></_>
        <_>
          <internalNodes>
            0 -1 29 -7.3084712028503418e-02</internalNodes>
          <leafValues>
            -9.4956272840499878e-01 2.1039615571498871e-01</leafValues></_></weakClassifiers></_>
    <!-- stage 1 -->
    <_>
      <maxWeakCount>7</maxWeakCount>
      <stageThreshold>-1.0456053018569946e+00</stageThreshold>
      <weakClassifiers>
        <_>
          <internalNodes>
            0 -1 121 -1.2208184227347374e-02</internalNodes>
          <leafValues>
            -3.2967034727334976e-02 -7.9187816381454468e-01</leafValues></_>
        <_>
          <internalNodes>
            0 -1 113 1.9591953605413437e-02</internalNodes>
          <leafValues>
            -3.9348408579826355e-01 5.8616352081298828e-01</leafValues></_>
        <_>
          <internalNodes>
            0 -1 67 8.2594174891710281e-03</internalNodes>
          <leafValues>
            -2.3395265638828278e-01 6.7365854978561401e-01</leafValues></_>
        <_>
          <internalNodes>
            0 -1 151 7.2946473956108093e-03</internalNodes>
          <leafValues>
            -1.5745122730731964e-01 8.5315287113189697e-01</leafValues></_>
        <_>
          <internalNodes>
            0 -1 0 1.1759875714778900e-01</internalNodes>
          <leafValues>
            1.9044753909111023e-01 -9.6074676513671875e-01</leafValues></_>
        <_>
          <internalNodes>
            0 -1 135 -2.1069519221782684e-02</internalNodes>
          <leafValues>
            7.0113945007324219e-01 -2.2083632647991180e-01</leafValues></_>
        <_>
          <internalNodes>
            0 -1 64 2.2389598190784454e-02</internalNodes>
          <leafValues>
            -1.9736151397228241e-01 7.8341215848922729e-01</leafValues></_></weakClassifiers></_>
    <!-- stage 2 -->
    <_>
      <maxWeakCount>8</maxWeakCount>
      <stageThreshold>-1.2391124963760376e+00</stageThreshold>
      <weakClassifiers>
        <_>
          <internalNodes>
            0 -1 115 -3.6668382585048676e-02</internalNodes>
          <leafValues>
            4.1666665673255920e-01 -7.0498913526535034e-01</leafValues></_>
        <_>
          <internalNodes>
            0 -1 120 4.9188077449798584e-02</internalNodes>
          <leafValues>
            -3.7707018852233887e-01 3.7458300590515137e-01</leafValues></_>
        <_>
          <internalNodes>
            0 -1 106 -2.3694783449172974e-02</internalNodes>
          <leafValues>
            5.7132768630981445e-01 -2.4160127341747284e-01</leafValues></_>
        <_>
          <internalNodes>
            0 -1 35 -1.9426761718932539e-04</internalNodes>
          <leafValues>
            -6.9288802146911621e-01 2.0373053848743439e-01</leafValues></_>
        <_>
          <internalNodes>
            0 -1 57 -1.3598235324025154e-02</internalNodes>
          <leafValues>
            6.5223169326782227e-01 -1.7279486358165741e-01</leafValues></_>
        <_>
          <internalNodes>
            0 -1 69 -2.7398420497775078e-03</internalNodes>
          <leafValues>
            -6.9802087545394897e-01 1.8094398081302643e-01</leafValues></_>
        <_>
          <internalNodes>
            0 -1 103 3.3665903174551204e-05</internalNodes>
          <leafValues>
            2.7403584122657776e-01 -4.8698791861534119e-01</leafValues></_>
        <_>
          <internalNodes>
            0 -1 125 5.7262573391199112e-03</internalNodes>
          <leafValues>
            -2.5640207529067993e-01 5.2513813972473145e-01</leafValues></_></weakClassifiers></_>
    <!-- stage 3 -->
    <_>
      <maxWeakCount>8</maxWeakCount>
      <stageThreshold>-1.7299572229385376e+00</stageThreshold>
      <weakClassifiers>
        <_>
          <internalNodes>
            0 -1 136 -2.8846338391304016e-02</internalNodes>
          <leafValues>
            -1.3924050331115723e-01 -7.4876844882965088e-01</leafValues></_>
        <_>
          <internalNodes>
            0 -1 134 -5.3251837380230427e-04</internalNodes>
          <leafValues>
            -8.7744867801666260e-01 1.0859561152756214e-02</leafValues></_>
        <_>
          <internalNodes>
            0 -1 7 1.0180028039030731e-04</internalNodes>
          <leafValues>
            1.6043540835380554e-01 -6.5105712413787842e-01</leafValues></_>
        <_>
          <internalNodes>
            0 -1 25 4.1399393230676651e-03</internalNodes>
          <leafValues>
            -1.7441026866436005e-01 7.4400866031646729e-01</leafValues></_>
        <_>
          <internalNodes>
            0 -1 23 5.8001278375741094e-05</internalNodes>
          <leafValues>
            2.5964727997779846e-01 -5.2714967727661133e-01</leafValues></_>
        <_>
          <internalNodes>
            0 -1 73 6.7438352853059769e-03</internalNodes>
          <leafValues>
            -2.0039719343185425e-01 6.3963609933853149e-01</leafValues></_>
        <_>
          <internalNodes>
            0 -1 111 2.4269019195344299e-04</internalNodes>
          <leafValues>
            2.6335448026657104e-01 -5.6847524642944336e-01</leafValues></_>
        <_>
          <internalNodes>
            0 -1 14 -1.1268801754340529e-03</internalNodes>
          <leafValues>
            -5.1388108730316162e-01 2.7348226308822632e-01</leafValues></_></weakClassifiers></_>
    <!-- stage 4 -->
    <_>
      <maxWeakCount>5</maxWeakCount>
      <stageThreshold>-9.9081063270568848e-01</stageThreshold>
      <weakClassifiers>
        <_>
          <internalNodes>
            0 -1 137 4.3140061199665070e-02</internalNodes>
          <leafValues>
            -7.1748876571655273e-01 1.2820513546466827e-01</leafValues></_>
        <_>
          <internalNodes>
            0 -1 58 2.0001368829980493e-04</internalNodes>
          <leafValues>
            5.6386873126029968e-02 -7.5539088249206543e-01</leafValues></_>
        <_>
          <internalNodes>
            0 -1 79 -1.7842387314885855e-03</internalNodes>
          <leafValues>
            -1. 9.5854058861732483e-02</leafValues></_>
        <_>
          <internalNodes>
            0 -1 87 -2.4818730889819562e-04</internalNodes>
          <leafValues>
            -6.1510485410690308e-01 2.2468078136444092e-01</leafValues></_>
        <_>
          <internalNodes>
            0 -1 99 -7.3477765545248985e-04</internalNodes>
          <leafValues>
            -5.1798731088638306e-01 1.8954207003116608e-01</leafValues></_></weakClassifiers></_>
    <!-- stage 5 -->
    <_>
      <maxWeakCount>7</maxWeakCount>
      <stageThreshold>-1.2088092565536499e+00</stageThreshold>
      <weakClassifiers>
        <_>
          <internalNodes>
            0 -1 131 5.3646960295736790e-03</internalNodes>
          <leafValues>
            -7.4162679910659790e-01 -7.4626863002777100e-02</leafValues></_>
        <_>
          <internalNodes>
            0 -1 48 5.4922611452639103e-03</internalNodes>
          <leafValues>
            -3.8233152031898499e-01 3.6591610312461853e-01</leafValues></_>
        <_>
          <internalNodes>
            0 -1 159 1.1605899780988693e-02</internalNodes>
          <leafValues>
            1.5985311567783356e-01 -7.7332216501235962e-01</leafValues></_>
        <_>
          <internalNodes>
            0 -1 54 6.7985229194164276e-02</internalNodes>
          <leafValues>
            -1.6439010202884674e-01 7.2499448060989380e-01</leafValues></_>
        <_>
          <internalNodes>
            0 -1 36 3.4221440553665161e-02</internalNodes>
          <leafValues>
            -2.0266042649745941e-01 5.2022355794906616e-01</leafValues></_>
        <_>
          <internalNodes>
            0 -1 60 -2.4984408169984818e-02</internalNodes>
          <leafValues>
            6.4455300569534302e-01 -1.8250118196010590e-01</leafValues></_>
        <_>
          <internalNodes>
            0 -1 140 -1.7349923728033900e-03</internalNodes>
          <leafValues>
            5.1513904333114624e-01 -1.9906961917877197e-01</leafValues></_></weakClassifiers></_>
    <!-- stage 6 -->
    <_>
      <maxWeakCount>6</maxWeakCount>
      <stageThreshold>-9.8936676979064941e-01</stageThreshold>
      <weakClassifiers>
        <_>
          <internalNodes>
            0 -1 157 7.6892273500561714e-03</internalNodes>
          <leafValues>
            -7.4056601524353027e-01 -1.6393441706895828e-02</leafValues></_>
        <_>
          <internalNodes>
            0 -1 98 -1.1880666017532349e-01</internalNodes>
          <leafValues>
            -5.9727805852890015e-01 1.2376608699560165e-01</leafValues></_>
        <_>
          <internalNodes>
            0 -1 15 2.2664291318506002e-03</internalNodes>
          <leafValues>
            2.1744896471500397e-01 -5.3375798463821411e-01</leafValues></_>
        <_>
          <internalNodes>
            0 -1 139 1.9695076625794172e-03</internalNodes>
          <leafValues>
            -2.5597092509269714e-01 5.3330957889556885e-01</leafValues></_>
        <_>
          <internalNodes>
            0 -1 46 6.4738036599010229e-04</internalNodes>
          <leafValues>
            1.7157094180583954e-01 -7.0336526632308960e-01</leafValues></_>
        <_>
          <internalNodes>
            0 -1 82 -1.6259774565696716e-04</internalNodes>
          <leafValues>
            3.3124682307243347e-01 -3.4961649775505066e-01</leafValues></_></weakClassifiers></_>
    <!-- stage 7 -->
    <_>
      <maxWeakCount>8</maxWeakCount>
      <stageThreshold>-1.3593651056289673e+00</stageThreshold>
      <weakClassifiers>
        <_>
          <internalNodes>
            0 -1 17 -4.0960378944873810e-02</internalNodes>
          <leafValues>
            -1.0344827920198441e-01 -7.2365337610244751e-01</leafValues></_>
        <_>
          <internalNodes>
            0 -1 124 -2.4292620946653187e-04</internalNodes>
          <leafValues>
            -5.8473217487335205e-01 8.8177345693111420e-02</leafValues></_>
        <_>
          <internalNodes>
            0 -1 3 -4.1896943002939224e-04</internalNodes>
          <leafValues>
            -7.2220879793167114e-01 1.3354809582233429e-01</leafValues></_>
        <_>
          <internalNodes>
            0 -1 62 -8.2639288157224655e-03</internalNodes>
          <leafValues>
            -7.2299653291702271e-01 1.4004151523113251e-01</leafValues></_>
        <_>
          <internalNodes>
            0 -1 114 -1.8448184709995985e-03</internalNodes>
          <leafValues>
            4.5886087417602539e-01 -2.2351394593715668e-01</leafValues></_>
        <_>
          <internalNodes>
            0 -1 162 -1.8652039580047131e-03</internalNodes>
          <leafValues>
            -7.3307126760482788e-01 1.4004610478878021e-01</leafValues></_>
        <_>
          <internalNodes>
            0 -1 158 -3.8966510328464210e-04</internalNodes>
          <leafValues>
            -5.8644413948059082e-01 1.6218008100986481e-01</leafValues></_>
        <_>
          <internalNodes>
            0 -1 155 7.4506863020360470e-03</internalNodes>
          <leafValues>
            -2.1315291523933411e-01 5.5252766609191895e-01</leafValues></_></weakClassifiers></_>
    <!-- stage 8 -->
    <_>
      <maxWeakCount>9</maxWeakCount>
      <stageThreshold>-1.2095854282379150e+00</stageThreshold>
      <weakClassifiers>
        <_>
          <internalNodes>
            0 -1 49 -1.7745099961757660e-02</internalNodes>
          <leafValues>
            4.0000000596046448e-01 -6.9462364912033081e-01</leafValues></_>
        <_>
          <internalNodes>
            0 -1 161 1.0951190488412976e-03</internalNodes>
          <leafValues>
            2.8734756633639336e-02 -7.6826584339141846e-01</leafValues></_>
        <_>
          <internalNodes>
            0 -1 8 -6.3646170310676098e-03</internalNodes>
          <leafValues>
            5.9482234716415405e-01 -2.0164054632186890e-01</leafValues></_>
        <_>
          <internalNodes>
            0 -1 30 -5.9393577277660370e-02</internalNodes>
          <leafValues>
            6.3610905408859253e-01 -1.4460824429988861e-01</leafValues></_>
        <_>
          <internalNodes>
            0 -1 153 -1.0369373485445976e-03</internalNodes>
          <leafValues>
            -7.4412190914154053e-01 1.7069783806800842e-01</leafValues></_>
        <_>
          <internalNodes>
            0 -1 33 4.0401550941169262e-03</internalNodes>
          <leafValues>
            -2.5392746925354004e-01 4.4743010401725769e-01</leafValues></_>
        <_>
          <internalNodes>
            0 -1 20 -6.4158730674535036e-04</internalNodes>
          <leafValues>
            -8.3068889379501343e-01 1.7272149026393890e-01</leafValues></_>
        <_>
          <internalNodes>
            0 -1 32 2.4384076823480427e-04</internalNodes>
          <leafValues>
            1.3947118818759918e-01 -6.5654247999191284e-01</leafValues></_>
        <_>
          <internalNodes>
            0 -1 26 -1.5693607274442911e-03</internalNodes>
          <leafValues>
            4.5783457159996033e-01 -2.9230830073356628e-01</leafValues></_></weakClassifiers></_>
    <!-- stage 9 -->
    <_>
      <maxWeakCount>6</maxWeakCount>
      <stageThreshold>-9.7992914915084839e-01</stageThreshold>
      <weakClassifiers>
        <_>
          <internalNodes>
            0 -1 43 -1.7023403197526932e-02</internalNodes>
          <leafValues>
            4.5454546809196472e-01 -7.0194381475448608e-01</leafValues></_>
        <_>
          <internalNodes>
            0 -1 105 -8.3746071904897690e-03</internalNodes>
          <leafValues>
            5.6300157308578491e-01 -3.0124735832214355e-01</leafValues></_>
        <_>
          <internalNodes>
            0 -1 70 2.9711539391428232e-03</internalNodes>
          <leafValues>
            2.0724059641361237e-01 -6.1312925815582275e-01</leafValues></_>
        <_>
          <internalNodes>
            0 -1 104 5.6700166314840317e-03</internalNodes>
          <leafValues>
            -1.6485121846199036e-01 8.2034152746200562e-01</leafValues></_>
        <_>
          <internalNodes>
            0 -1 9 -5.1857456564903259e-03</internalNodes>
          <leafValues>
            5.3273868560791016e-01 -1.8611714243888855e-01</leafValues></_>
        <_>
          <internalNodes>
            0 -1 119 1.6217050142586231e-03</internalNodes>
          <leafValues>
            2.6850387454032898e-01 -5.0600171089172363e-01</leafValues></_></weakClassifiers></_>
    <!-- stage 10 -->
    <_>
      <maxWeakCount>9</maxWeakCount>
      <stageThreshold>-1.4257180690765381e+00</stageThreshold>
      <weakClassifiers>
        <_>
          <internalNodes>
            0 -1 142 1.7487595323473215e-03</internalNodes>
          <leafValues>
            -6.9593149423599243e-01 5.5555558204650879e-01</leafValues></_>
        <_>
          <internalNodes>
            0 -1 95 8.5040237754583359e-03</internalNodes>
          <leafValues>
            -3.0185115337371826e-01 4.7498485445976257e-01</leafValues></_>
        <_>
          <internalNodes>
            0 -1 138 2.0544142462313175e-03</internalNodes>
          <leafValues>
            -2.2095911204814911e-01 4.7312530875205994e-01</leafValues></_>
        <_>
          <internalNodes>
            0 -1 80 -5.2257892675697803e-03</internalNodes>
          <leafValues>
            -8.7944370508193970e-01 1.4521235227584839e-01</leafValues></_>
        <_>
          <internalNodes>
            0 -1 51 -5.3426559315994382e-04</internalNodes>
          <leafValues>
            5.0546294450759888e-01 -2.0542868971824646e-01</leafValues></_>
        <_>
          <internalNodes>
            0 -1 76 1.6783531755208969e-03</internalNodes>
          <leafValues>
            1.5379205346107483e-01 -7.5524312257766724e-01</leafValues></_>
        <_>
          <internalNodes>
            0 -1 123 -1.6975913196802139e-02</internalNodes>
          <leafValues>
            4.6502387523651123e-01 -2.5027909874916077e-01</leafValues></_>
        <_>
          <internalNodes>
            0 -1 63 3.9390269666910172e-02</internalNodes>
          <leafValues>
            1.6767361760139465e-01 -6.4421999454498291e-01</leafValues></_>
        <_>
          <internalNodes>
            0 -1 83 2.9201470315456390e-03</internalNodes>
          <leafValues>
            -2.1794658899307251e-01 6.3503837585449219e-01</leafValues></_></weakClassifiers></_>
    <!-- stage 11 -->
    <_>
      <maxWeakCount>8</maxWeakCount>
      <stageThreshold>-1.2144248485565186e+00</stageThreshold>
      <weakClassifiers>
        <_>
          <internalNodes>
            0 -1 71 -1.2725885026156902e-03</internalNodes>
          <leafValues>
            -2.9310345649719238e-01 -7.6151764392852783e-01</leafValues></_>
        <_>
          <internalNodes>
            0 -1 100 -3.6093048751354218e-02</internalNodes>
          <leafValues>
            2.3891918361186981e-01 -4.2424690723419189e-01</leafValues></_>
        <_>
          <internalNodes>
            0 -1 86 -7.1397237479686737e-04</internalNodes>
          <leafValues>
            3.8227045536041260e-01 -2.6450547575950623e-01</leafValues></_>
        <_>
          <internalNodes>
            0 -1 147 1.0857993736863136e-02</internalNodes>
          <leafValues>
            -1.6612580418586731e-01 5.7627785205841064e-01</leafValues></_>
        <_>
          <internalNodes>
            0 -1 84 -1.5802757116034627e-04</internalNodes>
          <leafValues>
            3.0855929851531982e-01 -3.2021704316139221e-01</leafValues></_>
        <_>
          <internalNodes>
            0 -1 90 9.9329531192779541e-02</internalNodes>
          <leafValues>
            -1.4651618897914886e-01 6.9771516323089600e-01</leafValues></_>
        <_>
          <internalNodes>
            0 -1 13 1.6013801796361804e-03</internalNodes>
          <leafValues>
            1.5508693456649780e-01 -1.</leafValues></_>
        <_>
          <internalNodes>
            0 -1 110 1.3242593558970839e-04</internalNodes>
          <leafValues>
            -3.8357323408126831e-01 2.3198524117469788e-01</leafValues></_></weakClassifiers></_>
    <!-- stage 12 -->
    <_>
      <maxWeakCount>9</maxWeakCount>
      <stageThreshold>-1.1955735683441162e+00</stageThreshold>
      <weakClassifiers>
        <_>
          <internalNodes>
            0 -1 92 3.9795739576220512e-03</internalNodes>
          <leafValues>
            -7.0155900716781616e-01 8.1797032039171924e-17</leafValues></_>
        <_>
          <internalNodes>
            0 -1 10 -6.6857691854238510e-03</internalNodes>
          <leafValues>
            -6.1205959320068359e-01 4.9379240721464157e-02</leafValues></_>
        <_>
          <internalNodes>
            0 -1 50 -1.3856194913387299e-01</internalNodes>
          <leafValues>
            -8.0740737915039063e-01 1.0946905612945557e-01</leafValues></_>
        <_>
          <internalNodes>
            0 -1 11 -2.5384391192346811e-03</internalNodes>
          <leafValues>
            3.5651004314422607e-01 -2.6976555585861206e-01</leafValues></_>
        <_>
          <internalNodes>
            0 -1 133 9.7503438591957092e-03</internalNodes>
          <leafValues>
            1.7359036207199097e-01 -6.2807524204254150e-01</leafValues></_>
        <_>
          <internalNodes>
            0 -1 34 -8.1226877227891237e-05</internalNodes>
          <leafValues>
            -4.8875012993812561e-01 2.1680997312068939e-01</leafValues></_>
        <_>
          <internalNodes>
            0 -1 148 4.9719046801328659e-03</internalNodes>
          <leafValues>
            1.1788339912891388e-01 -8.1702327728271484e-01</leafValues></_>
        <_>
          <internalNodes>
            0 -1 143 4.0294730570167303e-04</internalNodes>
          <leafValues>
            -2.1909800171852112e-01 4.5498254895210266e-01</leafValues></_>
        <_>
          <internalNodes>
            0 -1 1 -1.1974122026003897e-04</internalNodes>
          <leafValues>
            -3.8168209791183472e-01 2.8633436560630798e-01</leafValues></_></weakClassifiers></_>
    <!-- stage 13 -->
    <_>
      <maxWeakCount>12</maxWeakCount>
      <stageThreshold>-1.2345687150955200e+00</stageThreshold>
      <weakClassifiers>
        <_>
          <internalNodes>
            0 -1 118 6.3792737200856209e-03</internalNodes>
          <leafValues>
            -6.7364019155502319e-01 1.</leafValues></_>
        <_>
          <internalNodes>
            0 -1 109 4.9596666358411312e-03</internalNodes>
          <leafValues>
            -3.8310381770133972e-01 1.7596927285194397e-01</leafValues></_>
        <_>
          <internalNodes>
            0 -1 4 1.0935084428638220e-03</internalNodes>
          <leafValues>
            1.1985290795564651e-01 -7.4510085582733154e-01</leafValues></_>
        <_>
          <internalNodes>
            0 -1 117 1.1029790621250868e-03</internalNodes>
          <leafValues>
            -2.2341588139533997e-01 3.5935285687446594e-01</leafValues></_>
        <_>
          <internalNodes>
            0 -1 78 6.5968299168162048e-05</internalNodes>
          <leafValues>
            1.9463203847408295e-01 -4.1641679406166077e-01</leafValues></_>
        <_>
          <internalNodes>
            0 -1 97 -4.7477916814386845e-03</internalNodes>
          <leafValues>
            -4.4600751996040344e-01 1.7114779353141785e-01</leafValues></_>
        <_>
          <internalNodes>
            0 -1 77 -3.5074590705335140e-03</internalNodes>
          <leafValues>
            5.7561302185058594e-01 -1.4816011488437653e-01</leafValues></_>
        <_>
          <internalNodes>
            0 -1 56 -3.4229173325002193e-03</internalNodes>
          <leafValues>
            -1. 9.2457450926303864e-02</leafValues></_>
        <_>
          <internalNodes>
            0 -1 41 -4.3302914127707481e-03</internalNodes>
          <leafValues>
            4.9549219012260437e-01 -2.0236098766326904e-01</leafValues></_>
        <_>
          <internalNodes>
            0 -1 72 -1.7617637291550636e-02</internalNodes>
          <leafValues>
            7.6665592193603516e-01 -1.2020093947649002e-01</leafValues></_>
        <_>
          <internalNodes>
            0 -1 44 3.0166353099048138e-03</internalNodes>
          <leafValues>
            -1.4103639125823975e-01 5.9450733661651611e-01</leafValues></_>
        <_>
          <internalNodes>
            0 -1 65 2.8665812686085701e-02</internalNodes>
          <leafValues>
            1.3734158873558044e-01 -7.0024043321609497e-01</leafValues></_></weakClassifiers></_>
    <!-- stage 14 -->
    <_>
      <maxWeakCount>9</maxWeakCount>
      <stageThreshold>-1.0359231233596802e+00</stageThreshold>
      <weakClassifiers>
        <_>
          <internalNodes>
            0 -1 31 -2.8292518109083176e-02</internalNodes>
          <leafValues>
            -2.4390242993831635e-02 -7.0720720291137695e-01</leafValues></_>
        <_>
          <internalNodes>
            0 -1 94 -1.2050939723849297e-02</internalNodes>
          <leafValues>
            -7.4474120140075684e-01 -2.5505738332867622e-02</leafValues></_>
        <_>
          <internalNodes>
            0 -1 66 4.4897798448801041e-02</internalNodes>
          <leafValues>
            -2.3056659102439880e-01 3.7346413731575012e-01</leafValues></_>
        <_>
          <internalNodes>
            0 -1 68 -2.3692597169429064e-03</internalNodes>
          <leafValues>
            3.5866901278495789e-01 -2.6995697617530823e-01</leafValues></_>
        <_>
          <internalNodes>
            0 -1 21 1.5665620565414429e-02</internalNodes>
          <leafValues>
            -1.9482640922069550e-01 4.5024427771568298e-01</leafValues></_>
        <_>
          <internalNodes>
            0 -1 102 2.0801961421966553e-02</internalNodes>
          <leafValues>
            1.7016817629337311e-01 -5.5678594112396240e-01</leafValues></_>
        <_>
          <internalNodes>
            0 -1 122 2.6400340721011162e-04</internalNodes>
          <leafValues>
            -2.8879708051681519e-01 2.9858535528182983e-01</leafValues></_>
        <_>
          <internalNodes>
            0 -1 42 3.1664841808378696e-03</internalNodes>
          <leafValues>
            -2.0660696923732758e-01 4.4373828172683716e-01</leafValues></_>
        <_>
          <internalNodes>
            0 -1 52 1.7196955741383135e-04</internalNodes>
          <leafValues>
            2.4519796669483185e-01 -3.8417184352874756e-01</leafValues></_></weakClassifiers></_>
    <!-- stage 15 -->
    <_>
      <maxWeakCount>8</maxWeakCount>
      <stageThreshold>-1.2423475980758667e+00</stageThreshold>
      <weakClassifiers>
        <_>
          <internalNodes>
            0 -1 18 1.3765333592891693e-01</internalNodes>
          <leafValues>
            -6.7647057771682739e-01 7.7777779102325439e-01</leafValues></_>
        <_>
          <internalNodes>
            0 -1 24 -5.5778231471776962e-03</internalNodes>
          <leafValues>
            2.2194063663482666e-01 -3.6915886402130127e-01</leafValues></_>
        <_>
          <internalNodes>
            0 -1 163 3.3531859517097473e-03</internalNodes>
          <leafValues>
            1.1046431213617325e-01 -8.2116550207138062e-01</leafValues></_>
        <_>
          <internalNodes>
            0 -1 81 -8.1038856878876686e-03</internalNodes>
          <leafValues>
            -4.1800105571746826e-01 2.1669536828994751e-01</leafValues></_>
        <_>
          <internalNodes>
            0 -1 55 -1.1764143593609333e-02</internalNodes>
          <leafValues>
            -5.6728178262710571e-01 1.4615012705326080e-01</leafValues></_>
        <_>
          <internalNodes>
            0 -1 150 6.3729559769853950e-04</internalNodes>
          <leafValues>
            -2.2978298366069794e-01 3.8897150754928589e-01</leafValues></_>
        <_>
          <internalNodes>
            0 -1 5 -1.2997172307223082e-03</internalNodes>
          <leafValues>
            -5.4708528518676758e-01 1.7673450708389282e-01</leafValues></_>
        <_>
          <internalNodes>
            0 -1 146 -3.2080462551675737e-04</internalNodes>
          <leafValues>
            3.5585215687751770e-01 -2.7644920349121094e-01</leafValues></_></weakClassifiers></_>
    <!-- stage 16 -->
    <_>
      <maxWeakCount>12</maxWeakCount>
      <stageThreshold>-1.4938354492187500e+00</stageThreshold>
      <weakClassifiers>
        <_>
          <internalNodes>
            0 -1 149 -2.5683604180812836e-03</internalNodes>
          <leafValues>
            8.5714288055896759e-02 -7.0666664838790894e-01</leafValues></_>
        <_>
          <internalNodes>
            0 -1 107 -1.2726022396236658e-03</internalNodes>
          <leafValues>
            1.9834038615226746e-01 -3.5326385498046875e-01</leafValues></_>
        <_>
          <internalNodes>
            0 -1 19 3.3262871205806732e-02</internalNodes>
          <leafValues>
            7.2619996964931488e-02 -1.</leafValues></_>
        <_>
          <internalNodes>
            0 -1 39 -5.9574410319328308e-02</internalNodes>
          <leafValues>
            -7.2197848558425903e-01 1.1932878196239471e-01</leafValues></_>
        <_>
          <internalNodes>
            0 -1 85 4.6000815927982330e-02</internalNodes>
          <leafValues>
            8.8252902030944824e-02 -8.3861017227172852e-01</leafValues></_>
        <_>
          <internalNodes>
            0 -1 37 1.5384721336886287e-03</internalNodes>
          <leafValues>
            -2.1793361008167267e-01 3.6963945627212524e-01</leafValues></_>
        <_>
          <internalNodes>
            0 -1 154 -1.0866871161852032e-04</internalNodes>
          <leafValues>
            -4.0445116162300110e-01 1.9659310579299927e-01</leafValues></_>
        <_>
          <internalNodes>
            0 -1 2 -9.5273023471236229e-03</internalNodes>
          <leafValues>
            3.6520048975944519e-01 -2.4047359824180603e-01</leafValues></_>
        <_>
          <internalNodes>
            0 -1 59 -2.1049064397811890e-01</internalNodes>
          <leafValues>
            6.7575138807296753e-01 -1.3869377970695496e-01</leafValues></_>
        <_>
          <internalNodes>
            0 -1 129 -1.1530675692483783e-03</internalNodes>
          <leafValues>
            3.4665128588676453e-01 -2.8512707352638245e-01</leafValues></_>
        <_>
          <internalNodes>
            0 -1 45 -2.6339143514633179e-03</internalNodes>
          <leafValues>
            4.3901440501213074e-01 -1.9351235032081604e-01</leafValues></_>
        <_>
          <internalNodes>
            0 -1 61 -2.3572705686092377e-03</internalNodes>
          <leafValues>
            -5.9827399253845215e-01 1.6504068672657013e-01</leafValues></_></weakClassifiers></_>
    <!-- stage 17 -->
    <_>
      <maxWeakCount>11</maxWeakCount>
      <stageThreshold>-1.2355808019638062e+00</stageThreshold>
      <weakClassifiers>
        <_>
          <internalNodes>
            0 -1 112 4.4463861733675003e-02</internalNodes>
          <leafValues>
            -6.7295598983764648e-01 7.5000000000000000e-01</leafValues></_>
        <_>
          <internalNodes>
            0 -1 132 8.7274191901087761e-04</internalNodes>
          <leafValues>
            -6.7668952047824860e-02 -1.</leafValues></_>
        <_>
          <internalNodes>
            0 -1 128 2.0560387521982193e-02</internalNodes>
          <leafValues>
            -1.0855377465486526e-01 6.6364198923110962e-01</leafValues></_>
        <_>
          <internalNodes>
            0 -1 145 4.0613941848278046e-02</internalNodes>
          <leafValues>
            -1.4811126887798309e-01 5.4141068458557129e-01</leafValues></_>
        <_>
          <internalNodes>
            0 -1 28 -1.4297721907496452e-02</internalNodes>
          <leafValues>
            -9.0616190433502197e-01 1.0921348631381989e-01</leafValues></_>
        <_>
          <internalNodes>
            0 -1 93 2.9486236162483692e-03</internalNodes>
          <leafValues>
            -2.3819793760776520e-01 3.7370783090591431e-01</leafValues></_>
        <_>
          <internalNodes>
            0 -1 88 1.2679002247750759e-03</internalNodes>
          <leafValues>
            -1.9864447414875031e-01 4.5143985748291016e-01</leafValues></_>
        <_>
          <internalNodes>
            0 -1 126 3.7346337921917439e-04</internalNodes>
          <leafValues>
            2.1407379209995270e-01 -4.1227605938911438e-01</leafValues></_>
        <_>
          <internalNodes>
            0 -1 116 -1.5687482664361596e-04</internalNodes>
          <leafValues>
            2.6534187793731689e-01 -3.0779537558555603e-01</leafValues></_>
        <_>
          <internalNodes>
            0 -1 53 -2.1389517933130264e-03</internalNodes>
          <leafValues>
            6.4784157276153564e-01 -1.1716125905513763e-01</leafValues></_>
        <_>
          <internalNodes>
            0 -1 40 -8.9177530026063323e-04</internalNodes>
          <leafValues>
            3.3221995830535889e-01 -2.5847220420837402e-01</leafValues></_></weakClassifiers></_>
    <!-- stage 18 -->
    <_>
      <maxWeakCount>8</maxWeakCount>
      <stageThreshold>-1.0743470191955566e+00</stageThreshold>
      <weakClassifiers>
        <_>
          <internalNodes>
            0 -1 38 -8.0423746258020401e-03</internalNodes>
          <leafValues>
            7.5000000000000000e-01 -6.7295598983764648e-01</leafValues></_>
        <_>
          <internalNodes>
            0 -1 152 -9.8072538094129413e-05</internalNodes>
          <leafValues>
            -6.1492234468460083e-01 1.3239272870123386e-02</leafValues></_>
        <_>
          <internalNodes>
            0 -1 6 -2.6035830378532410e-03</internalNodes>
          <leafValues>
            3.7032774090766907e-01 -2.3459772765636444e-01</leafValues></_>
        <_>
          <internalNodes>
            0 -1 156 6.3127663452178240e-05</internalNodes>
          <leafValues>
            2.2148001194000244e-01 -3.2864639163017273e-01</leafValues></_>
        <_>
          <internalNodes>
            0 -1 74 -6.9113657809793949e-04</internalNodes>
          <leafValues>
            3.1689110398292542e-01 -2.3155683279037476e-01</leafValues></_>
        <_>
          <internalNodes>
            0 -1 89 1.4073580503463745e-02</internalNodes>
          <leafValues>
            9.6401073038578033e-02 -8.1043976545333862e-01</leafValues></_>
        <_>
          <internalNodes>
            0 -1 96 2.4656960740685463e-03</internalNodes>
          <leafValues>
            -1.8237178027629852e-01 4.7976171970367432e-01</leafValues></_>
        <_>
          <internalNodes>
            0 -1 75 -3.9583542384207249e-03</internalNodes>
          <leafValues>
            -7.2120386362075806e-01 1.0706167668104172e-01</leafValues></_></weakClassifiers></_>
    <!-- stage 19 -->
    <_>
      <maxWeakCount>8</maxWeakCount>
      <stageThreshold>-1.2121765613555908e+00</stageThreshold>
      <weakClassifiers>
        <_>
          <internalNodes>
            0 -1 130 -3.0351404100656509e-02</internalNodes>
          <leafValues>
            4.6666666865348816e-01 -6.8510639667510986e-01</leafValues></_>
        <_>
          <internalNodes>
            0 -1 108 4.5032938942313194e-04</internalNodes>
          <leafValues>
            -3.5981819033622742e-01 2.6829600334167480e-01</leafValues></_>
        <_>
          <internalNodes>
            0 -1 47 4.9244391266256571e-04</internalNodes>
          <leafValues>
            1.5789850056171417e-01 -4.8640543222427368e-01</leafValues></_>
        <_>
          <internalNodes>
            0 -1 12 4.5256260782480240e-03</internalNodes>
          <leafValues>
            1.0285857319831848e-01 -7.2084283828735352e-01</leafValues></_>
        <_>
          <internalNodes>
            0 -1 16 1.2957565486431122e-03</internalNodes>
          <leafValues>
            -1.5155373513698578e-01 5.3980374336242676e-01</leafValues></_>
        <_>
          <internalNodes>
            0 -1 141 4.8360526561737061e-03</internalNodes>
          <leafValues>
            1.8610285222530365e-01 -4.2666622996330261e-01</leafValues></_>
        <_>
          <internalNodes>
            0 -1 127 -1.9638445228338242e-03</internalNodes>
          <leafValues>
            3.7475726008415222e-01 -2.0773467421531677e-01</leafValues></_>
        <_>
          <internalNodes>
            0 -1 144 -1.6813381807878613e-04</internalNodes>
          <leafValues>
            3.3081340789794922e-01 -2.3863373696804047e-01</leafValues></_></weakClassifiers></_></stages>
  <features>
    <_>
      <rects>
        <_>
          0 0 24 7 -1.</_>
        <_>
          12 0 12 7 2.</_></rects>
      <tilted>0</tilted></_>
    <_>
      <rects>
        <_>
          0 1 2 6 -1.</_>
        <_>
          0 4 2 3 2.</_></rects>
      <tilted>0</tilted></_>
    <_>
      <rects>
        <_>
          0 1 14 3 -1.</_>
        <_>
          7 1 7 3 2.</_></rects>
      <tilted>0</tilted></_>
    <_>
      <rects>
        <_>
          0 2 1 2 -1.</_>
        <_>
          0 3 1 1 2.</_></rects>
      <tilted>0</tilted></_>
    <_>
      <rects>
        <_>
          0 3 1 4 -1.</_>
        <_>
          0 5 1 2 2.</_></rects>
      <tilted>0</tilted></_>
    <_>
      <rects>
        <_>
          0 4 1 6 -1.</_>
        <_>
          0 6 1 2 3.</_></rects>
      <tilted>0</tilted></_>
    <_>
      <rects>
        <_>
          0 4 18 2 -1.</_>
        <_>
          0 4 9 1 2.</_>
        <_>
          9 5 9 1 2.</_></rects>
      <tilted>0</tilted></_>
    <_>
      <rects>
        <_>
          0 5 1 2 -1.</_>
        <_>
          0 6 1 1 2.</_></rects>
      <tilted>0</tilted></_>
    <_>
      <rects>
        <_>
          0 6 3 8 -1.</_>
        <_>
          1 6 1 8 3.</_></rects>
      <tilted>0</tilted></_>
    <_>
      <rects>
        <_>
          0 6 2 12 -1.</_>
        <_>
          1 6 1 12 2.</_></rects>
      <tilted>0</tilted></_>
    <_>
      <rects>
        <_>
          0 6 4 9 -1.</_>
        <_>
          0 9 4 3 3.</_></rects>
      <tilted>0</tilted></_>
    <_>
      <rects>
        <_>
          0 7 22 2 -1.</_>
        <_>
          0 8 22 1 2.</_></rects>
      <tilted>0</tilted></_>
    <_>
      <rects>
        <_>
          0 8 1 9 -1.</_>
        <_>
          0 11 1 3 3.</_></rects>
      <tilted>0</tilted></_>
    <_>
      <rects>
        <_>
          0 9 1 3 -1.</_>
        <_>
          0 10 1 1 3.</_></rects>
      <tilted>0</tilted></_>
    <_>
      <rects>
        <_>
          0 9 1 10 -1.</_>
        <_>
          0 14 1 5 2.</_></rects>
      <tilted>0</tilted></_>
    <_>
      <rects>
        <_>
          0 12 1 12 -1.</_>
        <_>
          0 18 1 6 2.</_></rects>
      <tilted>0</tilted></_>
    <_>
      <rects>
        <_>
          0 12 3 3 -1.</_>
        <_>
          0 13 3 1 3.</_></rects>
      <tilted>0</tilted></_>
    <_>
      <rects>
        <_>
          0 12 6 11 -1.</_>
        <_>
          3 12 3 11 2.</_></rects>
      <tilted>0</tilted></_>
    <_>
      <rects>
        <_>
          0 12 12 10 -1.</_>
        <_>
          6 12 6 10 2.</_></rects>
      <tilted>0</tilted></_>
    <_>
      <rects>
        <_>
          0 18 9 6 -1.</_>
        <_>
          3 18 3 6 3.</_></rects>
      <tilted>0</tilted></_>
    <_>
      <rects>
        <_>
          0 19 1 2 -1.</_>
        <_>
          0 20 1 1 2.</_></rects>
      <tilted>0</tilted></_>
    <_>
      <rects>
        <_>
          0 20 14 4 -1.</_>
        <_>
          0 22 14 2 2.</_></rects>
      <tilted>0</tilted></_>
    <_>
      <rects>
        <_>
          0 22 24 2 -1.</_>
        <_>
          12 22 12 2 2.</_></rects>
      <tilted>0</tilted></_>
    <_>
      <rects>
        <_>
          1 0 2 2 -1.</_>
        <_>
          1 0 1 1 2.</_>
        <_>
          2 1 1 1 2.</_></rects>
      <tilted>0</tilted></_>
    <_>
      <rects>
        <_>
          1 0 10 4 -1.</_>
        <_>
          1 2 10 2 2.</_></rects>
      <tilted>0</tilted></_>
    <_>
      <rects>
        <_>
          1 2 4 2 -1.</_>
        <_>
          1 3 4 1 2.</_></rects>
      <tilted>0</tilted></_>
    <_>
      <rects>
        <_>
          1 5 6 3 -1.</_>
        <_>
          1 6 6 1 3.</_></rects>
      <tilted>0</tilted></_>
    <_>
      <rects>
        <_>
          1 6 4 1 -1.</_>
        <_>
          3 6 2 1 2.</_></rects>
      <tilted>0</tilted></_>
    <_>
      <rects>
        <_>
          1 9 21 3 -1.</_>
        <_>
          1 10 21 1 3.</_></rects>
      <tilted>0</tilted></_>
    <_>
      <rects>
        <_>
          1 13 22 5 -1.</_>
        <_>
          12 13 11 5 2.</_></rects>
      <tilted>0</tilted></_>
    <_>
      <rects>
        <_>
          1 16 14 8 -1.</_>
        <_>
          1 20 14 4 2.</_></rects>
      <tilted>0</tilted></_>
    <_>
      <rects>
        <_>
          1 17 6 6 -1.</_>
        <_>
          4 17 3 6 2.</_></rects>
      <tilted>0</tilted></_>
    <_>
      <rects>
        <_>
          1 19 1 2 -1.</_>
        <_>
          1 20 1 1 2.</_></rects>
      <tilted>0</tilted></_>
    <_>
      <rects>
        <_>
          1 21 15 2 -1.</_>
        <_>
          1 22 15 1 2.</_></rects>
      <tilted>0</tilted></_>
    <_>
      <rects>
        <_>
          1 23 4 1 -1.</_>
        <_>
          3 23 2 1 2.</_></rects>
      <tilted>0</tilted></_>
    <_>
      <rects>
        <_>
          2 0 3 1 -1.</_>
        <_>
          3 0 1 1 3.</_></rects>
      <tilted>0</tilted></_>
    <_>
      <rects>
        <_>
          2 2 10 16 -1.</_>
        <_>
          2 2 5 8 2.</_>
        <_>
          7 10 5 8 2.</_></rects>
      <tilted>0</tilted></_>
    <_>
      <rects>
        <_>
          2 4 2 18 -1.</_>
        <_>
          3 4 1 18 2.</_></rects>
      <tilted>0</tilted></_>
    <_>
      <rects>
        <_>
          2 5 1 4 -1.</_>
        <_>
          2 7 1 2 2.</_></rects>
      <tilted>0</tilted></_>
    <_>
      <rects>
        <_>
          2 7 19 8 -1.</_>
        <_>
          2 11 19 4 2.</_></rects>
      <tilted>0</tilted></_>
    <_>
      <rects>
        <_>
          2 9 16 2 -1.</_>
        <_>
          2 9 8 1 2.</_>
        <_>
          10 10 8 1 2.</_></rects>
      <tilted>0</tilted></_>
    <_>
      <rects>
        <_>
          2 10 5 3 -1.</_>
        <_>
          2 11 5 1 3.</_></rects>
      <tilted>0</tilted></_>
    <_>
      <rects>
        <_>
          2 13 12 2 -1.</_>
        <_>
          2 13 6 1 2.</_>
        <_>
          8 14 6 1 2.</_></rects>
      <tilted>0</tilted></_>
    <_>
      <rects>
        <_>
          2 14 12 3 -1.</_>
        <_>
          2 15 12 1 3.</_></rects>
      <tilted>0</tilted></_>
    <_>
      <rects>
        <_>
          2 15 2 8 -1.</_>
        <_>
          2 15 1 4 2.</_>
        <_>
          3 19 1 4 2.</_></rects>
      <tilted>0</tilted></_>
    <_>
      <rects>
        <_>
          2 19 6 4 -1.</_>
        <_>
          4 19 2 4 3.</_></rects>
      <tilted>0</tilted></_>
    <_>
      <rects>
        <_>
          2 21 3 2 -1.</_>
        <_>
          3 21 1 2 3.</_></rects>
      <tilted>0</tilted></_>
    <_>
      <rects>
        <_>
          2 23 6 1 -1.</_>
        <_>
          4 23 2 1 3.</_></rects>
      <tilted>0</tilted></_>
    <_>
      <rects>
        <_>
          3 0 4 9 -1.</_>
        <_>
          5 0 2 9 2.</_></rects>
      <tilted>0</tilted></_>
    <_>
      <rects>
        <_>
          3 1 4 4 -1.</_>
        <_>
          3 3 4 2 2.</_></rects>
      <tilted>0</tilted></_>
    <_>
      <rects>
        <_>
          3 4 17 14 -1.</_>
        <_>
          3 11 17 7 2.</_></rects>
      <tilted>0</tilted></_>
    <_>
      <rects>
        <_>
          3 10 1 3 -1.</_>
        <_>
          3 11 1 1 3.</_></rects>
      <tilted>0</tilted></_>
    <_>
      <rects>
        <_>
          3 12 3 3 -1.</_>
        <_>
          3 13 3 1 3.</_></rects>
      <tilted>0</tilted></_>
    <_>
      <rects>
        <_>
          3 14 2 4 -1.</_>
        <_>
          3 14 1 2 2.</_>
        <_>
          4 16 1 2 2.</_></rects>
      <tilted>0</tilted></_>
    <_>
      <rects>
        <_>
          3 18 20 6 -1.</_>
        <_>
          3 21 20 3 2.</_></rects>
      <tilted>0</tilted></_>
    <_>
      <rects>
        <_>
          3 20 18 4 -1.</_>
        <_>
          3 20 9 2 2.</_>
        <_>
          12 22 9 2 2.</_></rects>
      <tilted>0</tilted></_>
    <_>
      <rects>
        <_>
          3 22 6 2 -1.</_>
        <_>
          3 22 3 1 2.</_>
        <_>
          6 23 3 1 2.</_></rects>
      <tilted>0</tilted></_>
    <_>
      <rects>
        <_>
          4 6 10 6 -1.</_>
        <_>
          4 6 5 3 2.</_>
        <_>
          9 9 5 3 2.</_></rects>
      <tilted>0</tilted></_>
    <_>
      <rects>
        <_>
          5 0 3 1 -1.</_>
        <_>
          6 0 1 1 3.</_></rects>
      <tilted>0</tilted></_>
    <_>
      <rects>
        <_>
          5 0 12 18 -1.</_>
        <_>
          5 9 12 9 2.</_></rects>
      <tilted>0</tilted></_>
    <_>
      <rects>
        <_>
          5 3 8 12 -1.</_>
        <_>
          5 3 4 6 2.</_>
        <_>
          9 9 4 6 2.</_></rects>
      <tilted>0</tilted></_>
    <_>
      <rects>
        <_>
          5 6 6 1 -1.</_>
        <_>
          7 6 2 1 3.</_></rects>
      <tilted>0</tilted></_>
    <_>
      <rects>
        <_>
          5 7 9 3 -1.</_>
        <_>
          5 8 9 1 3.</_></rects>
      <tilted>0</tilted></_>
    <_>
      <rects>
        <_>
          5 8 14 8 -1.</_>
        <_>
          5 12 14 4 2.</_></rects>
      <tilted>0</tilted></_>
    <_>
      <rects>
        <_>
          5 10 12 2 -1.</_>
        <_>
          9 10 4 2 3.</_></rects>
      <tilted>0</tilted></_>
    <_>
      <rects>
        <_>
          5 12 9 10 -1.</_>
        <_>
          8 12 3 10 3.</_></rects>
      <tilted>0</tilted></_>
    <_>
      <rects>
        <_>
          5 12 10 12 -1.</_>
        <_>
          5 18 10 6 2.</_></rects>
      <tilted>0</tilted></_>
    <_>
      <rects>
        <_>
          5 13 10 4 -1.</_>
        <_>
          5 13 5 2 2.</_>
        <_>
          10 15 5 2 2.</_></rects>
      <tilted>0</tilted></_>
    <_>
      <rects>
        <_>
          5 18 13 6 -1.</_>
        <_>
          5 21 13 3 2.</_></rects>
      <tilted>0</tilted></_>
    <_>
      <rects>
        <_>
          6 0 12 1 -1.</_>
        <_>
          12 0 6 1 2.</_></rects>
      <tilted>0</tilted></_>
    <_>
      <rects>
        <_>
          6 0 18 1 -1.</_>
        <_>
          12 0 6 1 3.</_></rects>
      <tilted>0</tilted></_>
    <_>
      <rects>
        <_>
          6 0 16 2 -1.</_>
        <_>
          6 0 8 1 2.</_>
        <_>
          14 1 8 1 2.</_></rects>
      <tilted>0</tilted></_>
    <_>
      <rects>
        <_>
          6 2 6 4 -1.</_>
        <_>
          8 2 2 4 3.</_></rects>
      <tilted>0</tilted></_>
    <_>
      <rects>
        <_>
          6 7 8 4 -1.</_>
        <_>
          6 7 4 2 2.</_>
        <_>
          10 9 4 2 2.</_></rects>
      <tilted>0</tilted></_>
    <_>
      <rects>
        <_>
          6 11 6 2 -1.</_>
        <_>
          6 11 3 1 2.</_>
        <_>
          9 12 3 1 2.</_></rects>
      <tilted>0</tilted></_>
    <_>
      <rects>
        <_>
          6 12 2 6 -1.</_>
        <_>
          7 12 1 6 2.</_></rects>
      <tilted>0</tilted></_>
    <_>
      <rects>
        <_>
          6 15 4 1 -1.</_>
        <_>
          8 15 2 1 2.</_></rects>
      <tilted>0</tilted></_>
    <_>
      <rects>
        <_>
          6 20 8 2 -1.</_>
        <_>
          6 20 4 1 2.</_>
        <_>
          10 21 4 1 2.</_></rects>
      <tilted>0</tilted></_>
    <_>
      <rects>
        <_>
          6 23 3 1 -1.</_>
        <_>
          7 23 1 1 3.</_></rects>
      <tilted>0</tilted></_>
    <_>
      <rects>
        <_>
          7 0 3 2 -1.</_>
        <_>
          8 0 1 2 3.</_></rects>
      <tilted>0</tilted></_>
    <_>
      <rects>
        <_>
          7 2 10 1 -1.</_>
        <_>
          12 2 5 1 2.</_></rects>
      <tilted>0</tilted></_>
    <_>
      <rects>
        <_>
          7 6 10 3 -1.</_>
        <_>
          12 6 5 3 2.</_></rects>
      <tilted>0</tilted></_>
    <_>
      <rects>
        <_>
          7 9 3 1 -1.</_>
        <_>
          8 9 1 1 3.</_></rects>
      <tilted>0</tilted></_>
    <_>
      <rects>
        <_>
          7 13 3 3 -1.</_>
        <_>
          8 13 1 3 3.</_></rects>
      <tilted>0</tilted></_>
    <_>
      <rects>
        <_>
          7 13 4 2 -1.</_>
        <_>
          7 13 2 1 2.</_>
        <_>
          9 14 2 1 2.</_></rects>
      <tilted>0</tilted></_>
    <_>
      <rects>
        <_>
          7 15 15 6 -1.</_>
        <_>
          7 17 15 2 3.</_></rects>
      <tilted>0</tilted></_>
    <_>
      <rects>
        <_>
          7 16 4 2 -1.</_>
        <_>
          7 17 4 1 2.</_></rects>
      <tilted>0</tilted></_>
    <_>
      <rects>
        <_>
          8 0 2 1 -1.</_>
        <_>
          9 0 1 1 2.</_></rects>
      <tilted>0</tilted></_>
    <_>
      <rects>
        <_>
          8 2 3 5 -1.</_>
        <_>
          9 2 1 5 3.</_></rects>
      <tilted>0</tilted></_>
    <_>
      <rects>
        <_>
          8 6 3 6 -1.</_>
        <_>
          8 9 3 3 2.</_></rects>
      <tilted>0</tilted></_>
    <_>
      <rects>
        <_>
          8 6 10 14 -1.</_>
        <_>
          8 13 10 7 2.</_></rects>
      <tilted>0</tilted></_>
    <_>
      <rects>
        <_>
          8 7 6 2 -1.</_>
        <_>
          8 7 3 1 2.</_>
        <_>
          11 8 3 1 2.</_></rects>
      <tilted>0</tilted></_>
    <_>
      <rects>
        <_>
          8 12 3 2 -1.</_>
        <_>
          9 12 1 2 3.</_></rects>
      <tilted>0</tilted></_>
    <_>
      <rects>
        <_>
          8 12 6 4 -1.</_>
        <_>
          10 12 2 4 3.</_></rects>
      <tilted>0</tilted></_>
    <_>
      <rects>
        <_>
          8 15 4 6 -1.</_>
        <_>
          8 17 4 2 3.</_></rects>
      <tilted>0</tilted></_>
    <_>
      <rects>
        <_>
          8 15 10 3 -1.</_>
        <_>
          8 16 10 1 3.</_></rects>
      <tilted>0</tilted></_>
    <_>
      <rects>
        <_>
          8 16 3 6 -1.</_>
        <_>
          9 16 1 6 3.</_></rects>
      <tilted>0</tilted></_>
    <_>
      <rects>
        <_>
          8 16 6 8 -1.</_>
        <_>
          8 16 3 4 2.</_>
        <_>
          11 20 3 4 2.</_></rects>
      <tilted>0</tilted></_>
    <_>
      <rects>
        <_>
          9 0 15 24 -1.</_>
        <_>
          9 12 15 12 2.</_></rects>
      <tilted>0</tilted></_>
    <_>
      <rects>
        <_>
          9 3 6 2 -1.</_>
        <_>
          12 3 3 2 2.</_></rects>
      <tilted>0</tilted></_>
    <_>
      <rects>
        <_>
          9 3 15 12 -1.</_>
        <_>
          14 3 5 12 3.</_></rects>
      <tilted>0</tilted></_>
    <_>
      <rects>
        <_>
          9 5 9 8 -1.</_>
        <_>
          12 5 3 8 3.</_></rects>
      <tilted>0</tilted></_>
    <_>
      <rects>
        <_>
          9 5 6 15 -1.</_>
        <_>
          12 5 3 15 2.</_></rects>
      <tilted>0</tilted></_>
    <_>
      <rects>
        <_>
          10 0 4 1 -1.</_>
        <_>
          12 0 2 1 2.</_></rects>
      <tilted>0</tilted></_>
    <_>
      <rects>
        <_>
          10 0 3 3 -1.</_>
        <_>
          10 1 3 1 3.</_></rects>
      <tilted>0</tilted></_>
    <_>
      <rects>
        <_>
          10 0 7 3 -1.</_>
        <_>
          10 1 7 1 3.</_></rects>
      <tilted>0</tilted></_>
    <_>
      <rects>
        <_>
          10 3 8 10 -1.</_>
        <_>
          10 3 4 5 2.</_>
        <_>
          14 8 4 5 2.</_></rects>
      <tilted>0</tilted></_>
    <_>
      <rects>
        <_>
          10 5 2 8 -1.</_>
        <_>
          10 5 1 4 2.</_>
        <_>
          11 9 1 4 2.</_></rects>
      <tilted>0</tilted></_>
    <_>
      <rects>
        <_>
          10 8 1 3 -1.</_>
        <_>
          10 9 1 1 3.</_></rects>
      <tilted>0</tilted></_>
    <_>
      <rects>
        <_>
          10 13 12 4 -1.</_>
        <_>
          10 15 12 2 2.</_></rects>
      <tilted>0</tilted></_>
    <_>
      <rects>
        <_>
          10 17 2 5 -1.</_>
        <_>
          11 17 1 5 2.</_></rects>
      <tilted>0</tilted></_>
    <_>
      <rects>
        <_>
          10 23 6 1 -1.</_>
        <_>
          12 23 2 1 3.</_></rects>
      <tilted>0</tilted></_>
    <_>
      <rects>
        <_>
          11 1 2 12 -1.</_>
        <_>
          11 5 2 4 3.</_></rects>
      <tilted>0</tilted></_>
    <_>
      <rects>
        <_>
          11 4 6 9 -1.</_>
        <_>
          13 4 2 9 3.</_></rects>
      <tilted>0</tilted></_>
    <_>
      <rects>
        <_>
          11 9 6 2 -1.</_>
        <_>
          11 9 3 1 2.</_>
        <_>
          14 10 3 1 2.</_></rects>
      <tilted>0</tilted></_>
    <_>
      <rects>
        <_>
          11 10 6 12 -1.</_>
        <_>
          11 10 3 6 2.</_>
        <_>
          14 16 3 6 2.</_></rects>
      <tilted>0</tilted></_>
    <_>
      <rects>
        <_>
          11 15 3 4 -1.</_>
        <_>
          12 15 1 4 3.</_></rects>
      <tilted>0</tilted></_>
    <_>
      <rects>
        <_>
          11 15 12 2 -1.</_>
        <_>
          11 15 6 1 2.</_>
        <_>
          17 16 6 1 2.</_></rects>
      <tilted>0</tilted></_>
    <_>
      <rects>
        <_>
          11 18 2 4 -1.</_>
        <_>
          11 18 1 2 2.</_>
        <_>
          12 20 1 2 2.</_></rects>
      <tilted>0</tilted></_>
    <_>
      <rects>
        <_>
          12 0 12 1 -1.</_>
        <_>
          18 0 6 1 2.</_></rects>
      <tilted>0</tilted></_>
    <_>
      <rects>
        <_>
          12 5 12 9 -1.</_>
        <_>
          18 5 6 9 2.</_></rects>
      <tilted>0</tilted></_>
    <_>
      <rects>
        <_>
          12 7 6 13 -1.</_>
        <_>
          14 7 2 13 3.</_></rects>
      <tilted>0</tilted></_>
    <_>
      <rects>
        <_>
          12 10 3 1 -1.</_>
        <_>
          13 10 1 1 3.</_></rects>
      <tilted>0</tilted></_>
    <_>
      <rects>
        <_>
          12 16 12 5 -1.</_>
        <_>
          16 16 4 5 3.</_></rects>
      <tilted>0</tilted></_>
    <_>
      <rects>
        <_>
          13 0 6 1 -1.</_>
        <_>
          15 0 2 1 3.</_></rects>
      <tilted>0</tilted></_>
    <_>
      <rects>
        <_>
          13 19 10 4 -1.</_>
        <_>
          13 19 5 2 2.</_>
        <_>
          18 21 5 2 2.</_></rects>
      <tilted>0</tilted></_>
    <_>
      <rects>
        <_>
          13 20 6 1 -1.</_>
        <_>
          15 20 2 1 3.</_></rects>
      <tilted>0</tilted></_>
    <_>
      <rects>
        <_>
          14 1 2 12 -1.</_>
        <_>
          14 1 1 6 2.</_>
        <_>
          15 7 1 6 2.</_></rects>
      <tilted>0</tilted></_>
    <_>
      <rects>
        <_>
          14 4 9 4 -1.</_>
        <_>
          17 4 3 4 3.</_></rects>
      <tilted>0</tilted></_>
    <_>
      <rects>
        <_>
          14 16 10 1 -1.</_>
        <_>
          19 16 5 1 2.</_></rects>
      <tilted>0</tilted></_>
    <_>
      <rects>
        <_>
          14 20 10 2 -1.</_>
        <_>
          19 20 5 2 2.</_></rects>
      <tilted>0</tilted></_>
    <_>
      <rects>
        <_>
          15 3 2 10 -1.</_>
        <_>
          15 3 1 5 2.</_>
        <_>
          16 8 1 5 2.</_></rects>
      <tilted>0</tilted></_>
    <_>
      <rects>
        <_>
          15 4 2 1 -1.</_>
        <_>
          16 4 1 1 2.</_></rects>
      <tilted>0</tilted></_>
    <_>
      <rects>
        <_>
          15 13 3 6 -1.</_>
        <_>
          15 16 3 3 2.</_></rects>
      <tilted>0</tilted></_>
    <_>
      <rects>
        <_>
          16 0 2 1 -1.</_>
        <_>
          17 0 1 1 2.</_></rects>
      <tilted>0</tilted></_>
    <_>
      <rects>
        <_>
          16 1 5 6 -1.</_>
        <_>
          16 4 5 3 2.</_></rects>
      <tilted>0</tilted></_>
    <_>
      <rects>
        <_>
          16 2 8 14 -1.</_>
        <_>
          16 2 4 7 2.</_>
        <_>
          20 9 4 7 2.</_></rects>
      <tilted>0</tilted></_>
    <_>
      <rects>
        <_>
          16 4 8 5 -1.</_>
        <_>
          20 4 4 5 2.</_></rects>
      <tilted>0</tilted></_>
    <_>
      <rects>
        <_>
          16 16 3 5 -1.</_>
        <_>
          17 16 1 5 3.</_></rects>
      <tilted>0</tilted></_>
    <_>
      <rects>
        <_>
          17 0 3 10 -1.</_>
        <_>
          18 0 1 10 3.</_></rects>
      <tilted>0</tilted></_>
    <_>
      <rects>
        <_>
          17 1 2 8 -1.</_>
        <_>
          17 1 1 4 2.</_>
        <_>
          18 5 1 4 2.</_></rects>
      <tilted>0</tilted></_>
    <_>
      <rects>
        <_>
          17 10 2 12 -1.</_>
        <_>
          17 14 2 4 3.</_></rects>
      <tilted>0</tilted></_>
    <_>
      <rects>
        <_>
          17 14 2 2 -1.</_>
        <_>
          17 14 1 1 2.</_>
        <_>
          18 15 1 1 2.</_></rects>
      <tilted>0</tilted></_>
    <_>
      <rects>
        <_>
          17 15 2 2 -1.</_>
        <_>
          17 15 1 1 2.</_>
        <_>
          18 16 1 1 2.</_></rects>
      <tilted>0</tilted></_>
    <_>
      <rects>
        <_>
          17 21 4 2 -1.</_>
        <_>
          17 21 2 1 2.</_>
        <_>
          19 22 2 1 2.</_></rects>
      <tilted>0</tilted></_>
    <_>
      <rects>
        <_>
          18 0 6 12 -1.</_>
        <_>
          21 0 3 12 2.</_></rects>
      <tilted>0</tilted></_>
    <_>
      <rects>
        <_>
          18 1 6 2 -1.</_>
        <_>
          21 1 3 2 2.</_></rects>
      <tilted>0</tilted></_>
    <_>
      <rects>
        <_>
          18 10 6 8 -1.</_>
        <_>
          18 10 3 4 2.</_>
        <_>
          21 14 3 4 2.</_></rects>
      <tilted>0</tilted></_>
    <_>
      <rects>
        <_>
          19 4 5 3 -1.</_>
        <_>
          19 5 5 1 3.</_></rects>
      <tilted>0</tilted></_>
    <_>
      <rects>
        <_>
          19 5 3 1 -1.</_>
        <_>
          20 5 1 1 3.</_></rects>
      <tilted>0</tilted></_>
    <_>
      <rects>
        <_>
          19 17 3 3 -1.</_>
        <_>
          20 17 1 3 3.</_></rects>
      <tilted>0</tilted></_>
    <_>
      <rects>
        <_>
          19 20 2 4 -1.</_>
        <_>
          19 22 2 2 2.</_></rects>
      <tilted>0</tilted></_>
    <_>
      <rects>
        <_>
          19 23 3 1 -1.</_>
        <_>
          20 23 1 1 3.</_></rects>
      <tilted>0</tilted></_>
    <_>
      <rects>
        <_>
          20 1 3 2 -1.</_>
        <_>
          21 1 1 2 3.</_></rects>
      <tilted>0</tilted></_>
    <_>
      <rects>
        <_>
          20 2 4 3 -1.</_>
        <_>
          20 3 4 1 3.</_></rects>
      <tilted>0</tilted></_>
    <_>
      <rects>
        <_>
          20 15 4 7 -1.</_>
        <_>
          22 15 2 7 2.</_></rects>
      <tilted>0</tilted></_>
    <_>
      <rects>
        <_>
          21 14 3 3 -1.</_>
        <_>
          21 15 3 1 3.</_></rects>
      <tilted>0</tilted></_>
    <_>
      <rects>
        <_>
          22 8 2 16 -1.</_>
        <_>
          23 8 1 16 2.</_></rects>
      <tilted>0</tilted></_>
    <_>
      <rects>
        <_>
          22 18 1 3 -1.</_>
        <_>
          22 19 1 1 3.</_></rects>
      <tilted>0</tilted></_>
    <_>
      <rects>
        <_>
          23 0 1 24 -1.</_>
        <_>
          23 12 1 12 2.</_></rects>
      <tilted>0</tilted></_>
    <_>
      <rects>
        <_>
          23 5 1 2 -1.</_>
        <_>
          23 6 1 1 2.</_></rects>
      <tilted>0</tilted></_>
    <_>
      <rects>
        <_>
          23 7 1 4 -1.</_>
        <_>
          23 9 1 2 2.</_></rects>
      <tilted>0</tilted></_>
    <_>
      <rects>
        <_>
          23 8 1 6 -1.</_>
        <_>
          23 10 1 2 3.</_></rects>
      <tilted>0</tilted></_>
    <_>
      <rects>
        <_>
          23 12 1 6 -1.</_>
        <_>
          23 14 1 2 3.</_></rects>
      <tilted>0</tilted></_></features></cascade>
</opencv_storage>
